4.066026452878696573e-01,-6.068033113046122917e-02,2.824926077553494008e-01,2.993832752069027214e-01,1.757798582575421098e-01,-2.479096437142490061e-01,-2.239692221081323598e-01,1.890529892262176603e-01,3.037630443116821621e-01,-4.548882676919388524e-01,1.304675795625222512e-01,4.794733267462052972e-01,4.468028210469232597e-01,-4.944955846392262155e-01,-3.724677922842489775e-01,-4.971282142068929044e-01,2.257061817515547131e-01,2.954442167268763186e-01,5.490936299136466719e-02,3.956030596200931782e-01,3.615893306843673272e-01,1.417973660712960708e-02,-9.903444592658933177e-02,4.587006519705821295e-01,3.074048673756280547e-01,-4.086570145889416028e-01,1.779983322878134211e-01,-1.287525515459711500e-01,-2.135925759102865196e-01,-7.934086332988571355e-02,3.552357589261632698e-01,-1.228596049372643884e-01,4.030654720369437616e-01,4.434296873431087249e-01,-7.704700106581299779e-02,-2.659077043990075717e-01,3.820208038469539158e-01,1.103806279378754945e-01,-4.842197680476104105e-01,-3.391003144510083556e-01,2.814432184944404836e-01,-4.529060481756644330e-01,4.339629971412928278e-01,3.408606652926166047e-02,2.651420049091964826e-01,4.213825742660737284e-01,2.686583790576956843e-01,4.424937256568044486e-01,-2.614216132338772480e-01,-1.745955503049805846e-01,2.532196352256068095e-01,-2.080177595893563658e-01,3.706296783842500438e-03,-3.171147409836223008e-01,1.467288945432622671e-01,2.279598695122171947e-01,2.601120024415817800e-01,-4.992652651911013151e-01,2.920378497011623109e-01,-1.374787374684398600e-01,-9.071040680563385861e-02,4.770087275904043023e-01,1.118730266867923179e-01,-1.132342098335499259e-01,-1.565543563323011922e-01,4.438551023794912731e-01,6.255604049967210256e-02,-1.200050762882740735e-01,1.189716769512740163e-01,3.493216229310458498e-01,6.279082625230905657e-02,-1.144223508202441841e-01,-2.380529614410412664e-01,-4.408943053700608433e-02,4.751531762568067530e-01,4.507213056294944731e-01,4.225481522084110209e-01,7.773245041438762992e-02,-4.079601061138210527e-02,-3.080124496324536665e-01,4.824834084519132038e-02,3.740278111003753070e-02,-3.096042074299159563e-01,2.368901290238675794e-01,1.255819572237187320e-01,-8.797955482586888865e-02,2.421067858626188285e-01,-1.236526726925698261e-01,-2.012842361126913893e-01,2.009544561130203466e-01,-7.056505852404194867e-02,6.446305777051737455e-03,3.139744553739078903e-01,8.741236198846170924e-02,4.688138564628294147e-01,-3.692418171326969367e-01,-2.363521439466160223e-01,2.919942354913596105e-01,1.150693353763823125e-02,-8.370112538625805454e-02,-1.632053324523335402e-01,-1.622906365026595589e-05,3.070374695757219774e-01,-4.290384671654851045e-01,3.076394878277685652e-01,3.836508532124541793e-01,-3.465262837129331475e-01,1.340584666378042134e-01,-3.260004202433567366e-01,-3.709835782305752616e-01,-7.848141408159607646e-02,3.393455609002926088e-01,-4.755432469202772183e-01,4.023275489005280203e-01,8.774729152870665294e-02,-3.560893084869723446e-01,4.700350769126068751e-01,4.607878552239613734e-01,-2.423462949223527396e-01,4.343611273992605340e-03,-1.405246352837102308e-01,-4.757451098617869745e-01,4.333116431982806382e-01,2.598515489266726153e-01,-7.541350014508853283e-02,-1.536846124029377092e-01,-1.461379179628200520e-01,-3.051746594124241652e-01,-3.102513962361571620e-01,1.935095108457500213e-01,-2.765108258557603671e-01,-2.649011414332044234e-01,-8.866354848854426929e-02,1.814264254413030797e-01,-1.584052749485399536e-01,4.423939115710217029e-01,1.346562680494777231e-01,-3.924950837992071118e-01,4.735304476458268019e-01,3.416065211776719845e-01,-3.720775951675092119e-01,-3.159053958324426481e-01,-3.308446601082236649e-01,-3.904653841717188323e-01,-4.654044693212439077e-01,3.593035879120913823e-01,1.455623039297450905e-01,6.513077989709398219e-02,3.145753416006099590e-01,3.630486946785153601e-01,3.166195766793877819e-01,-1.665360631514431200e-01,-1.612332205478110292e-01,2.491525430232278682e-01,3.744698189494998636e-02,2.746716758308255790e-01,-9.624690313671079023e-02,1.094531023298670434e-02,1.937000931921598890e-01,-4.800039380610584550e-01,-2.707832030490747166e-01,-1.094276325860717462e-03,3.825285446129530337e-02,4.274170956780119490e-01,-3.004633420231336838e-01,7.008812197512097331e-02,-1.069975259182983805e-03,-2.328620616252843056e-01,-3.887810132738098168e-01,-3.300375429547444672e-01,-1.754304021313560780e-01,2.891616390288555549e-01,-1.825934308271371653e-01,-1.504622009963580698e-01,-5.395453662212169876e-02,-4.942761378805029526e-01,-1.740367561939306917e-01,1.993836699944091795e-01,-4.899664787371860730e-01,2.517238054880014952e-01,-4.481043500649369293e-01,1.674281029435794876e-01,-5.053812622523879972e-01,1.501745611616314424e-01,-4.849946552614622930e-01,-3.229883368823526224e-01,-5.667255022543039589e-01,9.326390001703854793e-02,-7.882043114787561089e-02,2.830118394733850407e-01,6.300393352090710719e-02,-2.180034653232153230e-01,3.430806878543412042e-01,-9.619180457240514293e-02,3.240534360275122427e-01,1.041191815142085142e-01,2.658191864509535374e-01,-4.613913793671148289e-02,-2.789121890734921894e-01,-3.975504329819400939e-01,3.634288332491872331e-01,6.768727557994626276e-02,-4.952373045932894624e-01,3.311100025844088690e-01,3.472386569841685033e-01,-3.457167849419928718e-01,-4.349491939231415194e-01,-6.071557802704220519e-01,4.709685024785598834e-02,3.081520362683149231e-02,1.705165071036995605e-01,-4.312214476627264093e-01,-4.149637438546737167e-01,-4.853859920247866055e-01,-5.662299633009738181e-02,-1.894117665246552729e-01,-2.296448302905025884e-01,1.742914923567932817e-01,3.317301138855996978e-01,3.646463275633429757e-01,1.713098493034426462e-01,3.267228015356539728e-01,2.534175076987967845e-01,-4.832287326220435775e-01,-4.203963846450758934e-01,3.915268768141789701e-01,9.262444989904197734e-02,-4.367728023612832966e-01,3.605670001385589685e-01,-1.056499359350974998e-01,1.283150837393677302e-01,-2.764637368760848868e-01,2.902292447942260156e-01,1.313373134267651308e-02,-2.966639404574447081e-01,-5.325629084337542007e-01,1.207486027580922106e-01,7.333695864732585334e-02,-5.792568030560767828e-02,-4.577023398347835892e-01,-4.402804848895414680e-01,3.941149296302431937e-02,-5.781388852885582796e-01,-3.266751441436584469e-01,-1.145259456243795104e-01,2.740846736138459749e-01,1.470676316277382545e-01,-2.166706661419296465e-01,-2.768016801733378385e-01,2.144695778066529890e-01,4.088155130785721680e-01,3.011485691646913487e-01,-4.446281032460447924e-01,3.422074043187688930e-01,-7.146790103868469468e-02,1.687028713797079360e-01,2.710638999713498309e-01,-4.441664941249736098e-01,-1.164243413686993495e-01,-1.599735723768179740e-01,-8.925812854550307929e-02,-3.103605002783515476e-01,2.957648293408350337e-01,3.597711087537981689e-02,-5.842866132099956422e-01,9.057865776255769052e-02,-3.584308476186058856e-01,-1.967700675944953626e-01,-2.787522149657060619e-02,-4.860484250804195105e-01,-5.334205353320827792e-01,-1.345986963100657685e-01,-1.827604224192571070e-01,4.389297814717276619e-02,6.399005029264326350e-02,-3.075855276894232104e-01,4.167264333289362188e-01,-1.672433229302295113e-02,8.448544378350190259e-03,-4.866308593012386163e-01,-2.607803361014576216e-01,3.454072948006486898e-01,-4.413989714341662873e-01,-3.973579615469524096e-01,-2.813097230876830945e-01,-5.249532829808732926e-01,-4.706216309662009656e-01,1.451554535586811745e-01,-2.177167345175533633e-02,7.786785043060066858e-02,-1.476288021751350765e-01,2.357055675776139059e-01,-6.316493697293700249e-01,-4.126131103890934848e-01,1.230937057323990974e-01,1.397397120424103689e-01,-9.261196882457727042e-02,-4.362361131980260764e-01,-4.843727598154521502e-02,1.900639342248594266e-01,2.679596341257490244e-01,-1.401904183834343509e-01,4.062190256471361338e-01,-5.094850878312616738e-01,-5.045667917586726947e-01,-3.044173635742475903e-01,3.245444225037223684e-02,-3.695607246670518098e-01,-2.399919986481856837e-01,3.392191310211296051e-01,1.025354474002574626e-03,-4.185266885725802966e-01,-1.806278744091240618e-01,3.426775831006251272e-01,-4.607929019971944706e-01,-5.900485355090722556e-02,1.797735416640305981e-03,-4.256180894766106726e-01,-2.314589699812586165e-01,2.375908891158335645e-01,-4.246506357697701906e-01,-3.757505641599136470e-01,-2.229146424488252232e-01,1.044551635846453427e-02,-4.117283669346313846e-01,-5.315490057282705738e-01,-5.443201566984950945e-01,2.073974953100049534e-01,-2.534565624862519101e-02,1.056596132107612274e-01,-3.423100161304605260e-01,-4.437860922484505588e-01,-3.794320307741871900e-01,-5.875185724613587318e-02,3.431359161462030349e-02,2.290292525347689401e-01,-1.954943550536454577e-01,3.257297094858984665e-01,-2.966050933939885503e-01,-1.744754170867325593e-01,3.363394337766659747e-01,-5.272638846574837501e-01,-2.129209797869759113e-01,-5.248108692413437915e-01,2.301203845176265084e-01,-1.557814563013983911e-01,1.055688721850328582e-02,-1.719547369474256626e-01,-4.988153987043238979e-01,3.980927934769293297e-01,-2.565375566388611653e-02,-4.155297965001582550e-01,2.723473728206499134e-01,-3.815623977807796295e-03,2.034136744475723568e-01,-2.745746460920830412e-01,2.815057605936339621e-02,-5.776408210843247959e-02,-2.789089310172275793e-01,-2.966237284264743868e-01,8.623326128203691321e-02,3.246382501602961268e-01,3.994329588548674037e-01,2.490706335164189766e-01,2.592120407606785526e-01,2.478552360872880167e-01,-7.435545469751000947e-02,-2.460798304826938288e-01,-2.384542704784559930e-01,-1.073457035158588979e-01,-8.722763303684332586e-03,2.511232986233426501e-01,1.445882621646727428e-01,-1.301972646416208468e-01,1.304013586622459753e-01,-4.181859282057613647e-02,-3.047123101123150324e-01,-3.051948050998631867e-01,-2.745528756139360427e-01,1.401555639460711766e-01,2.692251176232161591e-01,-6.483929327860998848e-01,-6.781524257633925190e-01,-8.346249295280669389e-02,-6.129694017883091650e-01,-1.961455514666680666e-01,-5.562308649380581782e-01,-4.067984788959240205e-01,3.857454296480020695e-01,3.332341757688172534e-01,1.143256683578644795e-01,-2.694490356097906658e-01,2.820864784399156888e-01,2.827645657213392338e-01,-3.662041112058261327e-01,3.012963509832538578e-01,-3.991481925104723993e-01,-3.531308813646711897e-01,-1.435738258792411126e-01,-6.106769202783877276e-02,1.237834337052415995e-01,1.964618719320320728e-01,1.176349867484606654e-01,-1.667752179576047211e-01,-2.739979047117935829e-01,-3.024053113599554574e-02,-4.248345167921123156e-01,7.408239618525762349e-02,2.938760946742069793e-02,-8.006217949553273705e-02,-5.436158666311653453e-01,2.641288513961060902e-01,-3.744745487911640414e-01,1.537530855096542193e-01,2.063051150114575683e-01,-3.875124783488358982e-01,-3.346687687061070116e-02,3.042211622844651076e-01,-1.555851019502698107e-01,-1.381187845107263203e-02,1.351646471553146489e-01,-8.089998703629651400e-02,-3.238828580269195734e-01,-1.980229634878408751e-01,9.104198516498071547e-02,-4.177881495832148073e-01,5.747655884885433802e-02,-7.922646388642431980e-02,-3.257637752895063965e-01,-4.182544920997416926e-01,-1.836519255545625007e-01,2.736682880338110468e-01,1.389350667420760910e-01,-2.147554752410736900e-01,-4.969709852309767695e-01,1.121373694915268338e-01,-3.214943985050736780e-02,-2.915513931953463977e-01,4.381910583449161178e-02,-3.467699608447885606e-01,1.137358268240009768e-01,2.494420030231649377e-01,2.661402787723139429e-01,-3.603026846819504247e-01,4.639722537114934209e-01,-4.341898260319318470e-01,1.590854239971631334e-01,3.024401209204622409e-01,1.515262583269687095e-02,-2.389983749269027347e-01,4.666100607646463949e-01,3.489102745595516059e-02,-3.549323121396618097e-01,-3.996870816950843230e-01,-2.856913782118031819e-01,-1.328321074054672202e-01,2.192634396663873941e-01,8.592584212422818557e-02,-4.886539687721589975e-01,-2.743126304564177387e-01,-3.768927247887171594e-01,-5.113145583300794383e-01,-5.655859174631774344e-01,-4.419551550109790394e-01,-4.609671349058202527e-01,-3.238135353946127726e-01,-3.909381331852462838e-01,6.875764031552731269e-03,6.939908534841532362e-02,-3.069018860480631217e-01,2.580083050004626510e-02,-4.840732369457048656e-01,4.650825340303529204e-03,4.317288962577264799e-01,1.644364586565060793e-01,-6.537224644012758212e-02,-7.360605475340303849e-02,-9.246409296092203411e-02,-3.850276650976818260e-01,-3.325863950258510227e-01,-1.653048412143701407e-01,-3.148059243704732224e-01,1.421102146130541755e-01,-2.703157195574276139e-01,-3.957527956506581845e-01,1.447557641913516102e-01,-3.556517151918131558e-01,2.364166454146772109e-02,3.044140176744311033e-01,-4.735793516547965876e-01,-1.117199509962270576e-01,1.045247058196206204e-02,-5.369349674021041130e-01,1.817541793759925028e-01,-7.377611918016351022e-02,3.507177877341783878e-01,-5.162540547762879406e-01,-3.497331765071666487e-02,-5.899759367026942425e-02,-3.569097528112781248e-01,1.512317724530109764e-01,-1.642563198157474258e-01,2.584109336612633867e-01,-9.874594816972177835e-02,4.518358948419016197e-01,-4.849051760760806906e-01,-1.147971851582785391e-01,-2.209467385040458087e-01,-1.419246313675659732e-01,1.637988913184226236e-01,-1.676045254712056065e-01,-5.714885181757536903e-02,1.417302076128363619e-01,-1.073685469308758161e-01,-5.838630006231202429e-01,-3.575689669359158329e-01,2.205092862149763133e-01,-3.882903558484934736e-01,-4.522135855498289336e-01,-3.118108765764654455e-02,-5.635686294895072557e-01,3.482208738025396322e-01,-5.114145393464967215e-01,-4.819175049938818067e-01,3.051099704320518469e-01,-2.085384071434195907e-01,9.734617226132918910e-02,-2.892164432174533784e-01,4.560933975927745077e-01,3.426135146958199096e-01,-2.129917879386136192e-01,-2.226012144926514946e-01,1.561410414338308128e-01,4.419583357789726996e-01,1.028533112914071096e-01,-2.137732283128111477e-01,2.400421927705499725e-01,-6.622727583775565863e-02,-3.478798969376613037e-01,-1.609563393824697819e-01,-7.229305654334949871e-02,1.633132074695730351e-01,-9.573985741607826672e-02,-1.359498165818051885e-01,3.960414543258753417e-01,1.072412399634753571e-01,9.461952687644815951e-02,-3.553964623283928925e-01,1.369559681785381955e-01,2.485478650837919315e-02,2.834577295647615069e-01,2.630090765872845071e-01,1.050599160587224051e-01,-2.934756093235339480e-01,-4.191374280858261026e-01,1.564863439320236527e-01,1.675641754523339577e-01,5.443079232530637079e-02,2.396172245888845698e-01,6.099943456792562141e-02,-1.472847470442146256e-01,1.462608403589702732e-01,-4.639505193700100838e-01,-2.908668275843313555e-01,2.680116379007988631e-02,-5.080838643197955751e-01,-3.811319437770842589e-01,-2.888030260587465259e-01,7.188618415995971789e-02,-9.332260419335100532e-02,-1.488915962536959126e-01,2.061612692694200222e-01,-5.270607050518166803e-01,-5.281349586150938524e-01,1.669443826131918052e-02,-6.113376145676147067e-01,-6.099326126974009554e-01,-2.896104219251754291e-02,-3.363425278726444589e-01,1.083643658251663006e-01,-3.073961364335236479e-01,-2.008740525080870976e-01,-1.247085193934168168e-01,1.613300263381383937e-01,-2.803986798306020711e-01,3.133997697669419491e-01,2.292166699745327441e-01,9.221354414634747032e-02,-3.197743098447307641e-01,3.418601045227067647e-01,2.254770923423699003e-01,4.250735732186144977e-02,-3.790090973706288779e-01,4.552119359326739501e-01,1.240959216016799260e-01,-1.221021287258155369e-01,-5.972498013744304002e-01,-5.038161176279587483e-01,2.659844559163758726e-01,-3.797076828993991016e-01,-1.876633248279177546e-02,2.601715341499202805e-01,-1.848332976431341090e-01,-2.504749518254490437e-01,-2.987717716271136650e-02,1.192307353434833989e-01,1.765498240136899877e-01,-2.062886483657426495e-02,-5.223741453986306960e-01,-5.429133964489356590e-01,-1.977460948701407206e-01,2.541687454844432370e-01,-4.596594418311146235e-01,3.227058152610325359e-01,1.005512159267624162e-01,3.270776973045829705e-01,-4.374085487358107122e-02,-1.706106208429120780e-02,4.469890184606728359e-04,4.378362206001390478e-01,-1.876992984111170437e-01,-1.098116980944624163e-02,-3.156164455218965492e-01,1.592025048054358793e-01,-6.814222976783575192e-02,-3.553862226627642514e-03,2.683217454060102813e-01,-2.298412114666858463e-01,-4.038798988507286136e-01,-5.583393175416076493e-02,2.301744987972774437e-02,-2.056144425460753045e-01,-3.471269292130900186e-01,-5.343678682653158624e-02,-2.450084117533691264e-01,-1.788792005761970783e-01,1.545305738110875626e-01,-3.357426928106850561e-02,2.087299038934418705e-01,-4.125909803443453816e-01,1.753423565749969160e-01,-4.660703492195304443e-01,-2.692170455020652664e-01,2.187283181057275983e-01,1.517803976360063145e-01,3.439923290869728589e-02,-4.148192921585284743e-01,3.525505340338955240e-02,1.339669241059521787e-01,1.813684238882463107e-01,-4.044195375093411760e-01,-4.317932467912830030e-02,4.508797174064823055e-01,3.175515271556789698e-01,-3.087715114828492591e-01,-7.772510149598300944e-02,1.977656843055721481e-01,-2.148676719775226840e-01,-2.036884034578526348e-01,8.112680554840564703e-03,-4.756591258082104590e-01,-2.083302765925575950e-01,-5.092700701194698976e-01,-5.111520404418971181e-02,4.096829786336196322e-01,-4.681405842963302089e-01,1.619560941056615577e-01,4.774297422228741816e-02,-4.472347030762054976e-01,-2.118367854685442586e-01,-1.793676692275701090e-01,3.175140004531120108e-01,-2.126415512798804364e-01,-8.234360232939713642e-02,-1.907633244998173938e-01,-3.340333135677729381e-01,-4.045494339191487709e-01,2.682881780385567572e-01,-4.601638042929175887e-01,-1.202289325936553056e-02,4.799503861808053218e-01,1.251234539131988455e-01,3.009114028391797133e-02,-3.647565754926468395e-01,-3.896185057244295757e-01,1.263023773248045378e-01,3.984224843536054994e-02,5.238948375450759240e-03,-2.848614563736248662e-01,3.760473341007309345e-01,-1.457464478173182698e-01,2.725697390940979847e-01,3.592892683331811443e-01,-4.999912614295202173e-01,-1.556045831587524741e-01,1.071458987884001679e-01,-2.818565271206014966e-01,1.355908932784262166e-01,-3.461714937308398854e-01,-2.508311314010261417e-01,3.818488108320550189e-02,-2.189413436040509864e-01,-1.038686259083240887e-01,1.601551655054137269e-01,-4.084717594982595901e-01,-4.915692159083708268e-01,1.191911749237481305e-01,1.521767126940720867e-02,2.492233567067388689e-01,-4.007043061951603979e-01,4.733880193903785005e-01,3.892174785020716676e-01,1.074591765044921599e-01,-4.769020361154319709e-01,-4.272205029894897699e-01,-1.049367766938858193e-01,-7.232696263188877206e-02,-2.704942603747607643e-01,-4.835555010033946166e-01,-1.194976332826380855e-01,3.429761315453036530e-01,-1.209514291903865529e-01,4.991821872270207905e-02,-1.191777172815180474e-01,4.486658661814243443e-01,-4.007546959897105854e-01,-3.766997753737348908e-01,-7.020165856993040854e-02,-7.763928562959016011e-02,-2.129951337235412301e-01,2.286795538856624677e-01,2.474679522700301282e-01,4.215882381941176704e-01,-1.089911490359257024e-01,1.535815379510209293e-02,4.850260474516884801e-01,-4.373057873711605481e-01,5.886464522894983842e-02,4.140654945323733738e-02,2.272683780421437816e-01,4.533472787649882041e-01,4.508396928289721411e-02,2.838643809561486320e-01,-2.310825526779619332e-01,-4.307835533477436668e-02,9.101961226524432624e-02,-1.294009651981238296e-01,3.202476762058835413e-02,1.755731626956940350e-01,-1.717508891534214321e-01,3.859447133422376774e-01,-2.211247621056260659e-01,1.196047966724105849e-01,6.367726394882444740e-02,8.370539851733554970e-02,8.706209417733962175e-02,-2.058984947089068096e-01,-3.077037167342830393e-01,-3.880372364505348393e-01,2.074861454918003889e-01,-2.324873326566107845e-01,-1.752385821286429057e-01,-2.321495777968526075e-01,-2.871260676092260988e-01,-1.406736703427512170e-01,-4.997516129118125261e-01,3.762905270152138160e-01,4.373020578822233717e-01,-6.186321416009850534e-03,9.141507919665259330e-02,-1.600376718876002913e-01,2.587416860167846555e-01,3.391961315784904341e-01,3.826790112237496433e-01,-7.905080941034825504e-02,-5.811867997637935879e-02,4.356426030441587494e-01,-4.528757973042875640e-01,1.100072000315326093e-01,-3.300099889589843682e-01,-3.414596966179555548e-01,3.422242206580666246e-01,-1.097715012379374966e-01,-4.091611101126127470e-01
-5.822843471644241486e-02,-3.281005858192656000e-01,3.722887173372761704e-02,2.578053976888648388e-02,1.822926630888871136e-01,2.162984580475213192e-01,-2.784323567103453856e-01,-4.952523497893696058e-01,-8.820325715251101095e-02,3.454923105889745605e-01,2.128402309247642010e-01,-1.458467951836112386e-01,-4.142115738962511549e-04,-6.286464219480170090e-02,-2.616943405047290616e-01,-4.924947634092799453e-01,3.040562350513054124e-01,-4.865513120297908500e-01,-1.670953505894167412e-01,-2.052542451707273508e-01,1.683560663931268075e-01,1.733013619407538231e-01,-3.625561954608814696e-01,2.798315863408178394e-01,-1.903722413635436095e-01,2.537703356266088894e-01,-4.809267100250154137e-01,-1.644054090169284887e-01,7.697146099817517295e-02,2.441610867228960480e-01,2.850318065996474415e-01,4.691043813282087527e-01,-1.345490145802299697e-01,-7.544643223203605087e-02,-9.970202775456468713e-02,3.390483015178590298e-01,3.302366240848886858e-01,4.888185988243248237e-01,2.889954410572634913e-01,2.167559023076048863e-01,-1.965902618307798222e-01,8.277553331589256047e-03,-1.131672918805379062e-02,-8.179137443015250739e-03,1.522720840309584600e-01,-2.022986978313685291e-01,-1.663988017001651332e-01,-3.264262382802939899e-01,-9.870800193187836968e-02,-4.744991084309200247e-01,-4.182566452178039240e-01,-3.972439916834614171e-01,-4.593803596912180431e-01,-1.765404951391895960e-01,-3.405048501216609846e-01,-7.056397866502345240e-02,1.377184150125894957e-01,5.676225228460021061e-02,2.229629029181148803e-01,1.998576222472715422e-02,-1.466684562081518595e-01,8.427700409595467734e-02,-4.349597569830858657e-01,-4.770232841744211916e-01,4.175803204879078856e-01,1.663692254596561282e-01,-2.402551686113035476e-02,1.595883686698321702e-01,3.210067479762819254e-01,2.495792061495085146e-01,-3.281861412769639386e-01,2.392685481420007282e-02,-2.849489547698068059e-01,2.881463875294927868e-01,-1.607159681286020048e-01,9.823873612985237203e-02,-1.258870743512201795e-01,5.148434440361728676e-02,-2.583839902628318752e-01,4.328808257736996845e-01,4.377476682829888922e-03,2.513932406831665411e-01,4.417297769764680915e-01,4.458835849674464002e-01,1.765908278358402084e-01,4.233672576594488257e-01,4.351962556005192773e-01,-1.064772542742207784e-01,-2.462117126536079170e-01,-1.095995433232289096e-01,2.376626163696159491e-02,-3.551231898889561367e-01,1.782785481582579434e-01,3.517575159901283749e-02,2.580622670419014941e-01,-4.268562487155420915e-02,3.454849543025093617e-01,-8.748988408618238455e-02,-1.533929043135253897e-02,1.890766324023344658e-01,2.499039863363686498e-01,-7.585022131276854263e-02,2.518248571181112005e-01,-2.576496563860617983e-01,4.415106034047797667e-01,3.101435974480464680e-02,3.131006866420297241e-01,-3.411461415555400722e-01,4.021677054431183618e-01,1.970108613620782378e-01,3.576052562990893469e-01,2.564927063115658434e-01,2.157605869549437949e-01,-1.979723397086027015e-01,-4.811470333684286782e-01,3.266198787630588130e-01,-4.792146387926007889e-02,-3.661774701766814522e-01,-4.405135380223028641e-01,-2.583172049072899323e-01,1.714597390342201821e-01,3.679625908046076088e-02,1.650443758799684940e-02,3.319594869787023672e-01,-9.431307890105465608e-02,-1.259147119199140741e-01,2.026745529529079271e-01,-4.660420058154227663e-01,1.400732090230090432e-01,1.749071880282455915e-01,4.064103037601911605e-01,-3.251904838680468868e-01,4.400260305514959724e-01,1.662371011362771267e-01,4.593446345258301311e-01,-2.805871761050490187e-01,-3.067734470384899104e-01,-2.263520716622617890e-01,2.528522898317804302e-01,-1.704258817877979115e-01,-2.928811881657404914e-01,-2.398375362435503366e-01,1.560271335832634221e-01,-3.225103084052892699e-01,3.665398809883829156e-01,-3.078554937775899725e-01,-4.006859360728280417e-01,-1.108695723409146433e-01,-8.597352566194865764e-02,-3.882504901178173706e-01,1.665501841857115473e-01,-4.754349762851715067e-01,-8.070128167646542505e-02,2.770146512761407775e-01,1.604826135040556545e-01,-5.157342969688576417e-01,1.212616271255312628e-01,2.616935615771256440e-01,2.077040713625717960e-01,-5.284945133908515169e-01,-1.869326333786605621e-01,-8.802499618515507995e-02,4.291558649007430337e-01,-1.749937006498747671e-01,-4.204108338332863681e-01,3.200627981673456746e-02,1.955067851913490917e-01,1.948776388818010685e-01,3.938354157738798156e-01,-4.492380776023763844e-01,-3.633917156492536341e-03,-6.722515370128523404e-02,-1.467545068640539463e-01,-3.245220808768172205e-01,-2.702914137951753504e-01,-1.582687179906564212e-01,3.677344132445127811e-01,2.300705862002290145e-02,2.445669042049253561e-01,-5.372860603465836604e-01,9.221774823979117866e-03,-2.786586472824716387e-01,5.918679858240396413e-02,-6.173798082514065921e-01,-9.619407244929888134e-02,-7.424110219310341152e-02,-4.977822526673332804e-01,-2.749254877841757483e-01,-1.258728993278875330e-01,-9.468931000383010166e-02,1.458837945047927465e-01,3.038034909033971442e-01,-9.848013896951043900e-02,-1.363749220914216576e-01,2.220875597524920309e-01,-3.472600378781066643e-01,3.484621911676533124e-01,-1.024304034488748433e-01,8.695031902158631421e-02,-3.674186041409960857e-01,3.576968992151994264e-01,1.958215293566510085e-01,-2.017191867177290099e-01,-2.511142960964684798e-02,-5.735449298906794002e-01,-2.141505278823487013e-01,3.318472414802675630e-01,1.235186978793215151e-01,-4.539203059465304335e-01,-6.782445385021146356e-01,-5.141376065246631988e-02,6.598649360188336976e-02,-2.202804212457845079e-01,5.856841973592539358e-02,-5.022470727394861001e-01,2.279211272601172900e-01,1.458267520939103279e-01,-4.850516276063181476e-01,-4.254620648492506985e-01,1.362169885620347354e-01,-3.724051224974790353e-01,-3.132191880519313854e-01,2.146938600886001969e-01,1.323453616870308158e-01,1.297762647185598563e-03,2.391646278934520253e-01,-7.636602752505311682e-03,-1.989285164392536887e-01,-3.485520329284776397e-01,2.822474418381537564e-01,3.495151716713888468e-01,-4.083611314771529166e-02,1.573473320247549267e-01,3.432858237196362294e-02,-4.837536314452943742e-01,-2.707081952292682558e-01,-2.005820109585316202e-01,-2.118857482837917250e-02,-7.177531122280412790e-01,2.285751403392312087e-01,-6.604487537860649349e-01,1.051820769706817704e-01,-5.045930754908775073e-01,2.872558718134303746e-01,2.341580184380327445e-01,3.496147603768026135e-01,3.564638469408616395e-01,-2.816945723747016350e-01,-2.842561506293205809e-01,-1.787437104288887024e-01,2.277273442726089336e-01,1.099051793227479312e-01,-1.709475868011235689e-01,3.245669530004680614e-01,4.120219979293529011e-01,-3.935265168381960055e-01,-3.321883852056593533e-01,-3.933963925426386954e-01,-1.764719665354000100e-01,2.711309432292490773e-01,-5.440560260312726770e-01,9.069873661391542052e-02,-1.767469164313464347e-01,2.273251583970391509e-01,2.395051420509689277e-01,-7.085735315870861362e-02,-4.900271301427726600e-01,2.807545362527864019e-01,-2.938657999245622987e-01,-4.145358056575292327e-01,-1.161523631354652031e-01,-2.290314366954290526e-01,-2.516121540392072808e-01,1.807972638659704756e-01,3.497978909492613364e-02,4.405430233430001064e-01,-3.553493141819445422e-01,4.777518807813259105e-01,2.607089091627569077e-01,-1.615198885511887894e-01,-6.753849916320639468e-02,-2.342025179249833111e-01,2.337000874788491556e-01,-4.171515181193181238e-02,4.442043587933414139e-01,-2.399289971788373665e-02,2.022979788080089270e-01,2.671509351635525942e-01,3.085317939365881390e-01,-9.100225727375488294e-02,-9.625929724588953851e-02,6.181916955754013232e-02,-1.562539144818582693e-01,2.828626963237622638e-01,-2.112219145177381963e-01,-2.212524184175244657e-01,1.747972648454443056e-01,-2.513400342147396049e-01,-6.528968331903593769e-02,-4.390755438042513448e-01,-3.390780582904132645e-01,-3.949294596209468322e-01,2.147430626597031100e-01,2.807249891035926703e-01,-1.386054503169013574e-01,-4.864647452055690380e-01,3.913842845619432409e-01,-4.697494198436780732e-01,-6.897030482431835974e-02,-4.298643565378530707e-02,3.091028591210741028e-01,1.954917579485530299e-01,1.211639369485189785e-02,-1.436543677580288947e-01,3.136871033174214174e-02,2.651196577377921970e-02,2.482955769061241658e-01,9.413914491253848327e-02,-1.775642325259715326e-01,-5.662582222105002616e-01,1.679386139268689293e-01,-9.307174499562799463e-02,-2.053438732286409774e-01,-8.428118532915131189e-02,-6.393927166866079093e-01,-4.029336864261426343e-02,1.655618671335973291e-01,-2.315554523306649626e-01,-1.970961356489822069e-01,-2.120019140483578590e-01,3.589874212395193637e-02,3.899440622062647077e-01,-1.134036509093550305e-01,3.252737104465511231e-01,5.856765736379673098e-02,-3.275368051737502784e-01,3.193422128926144687e-02,-4.410323713108704746e-01,-3.470461830800211089e-01,1.798849089356152897e-01,-3.419342499858966100e-01,-4.126014178399094456e-01,-7.553216300388703244e-03,3.637917027245378410e-02,-2.590961261680312933e-01,3.091513584835277051e-01,-4.481458727431338329e-01,1.907055433397697453e-01,2.606229583764750335e-01,-3.386836823953933706e-01,-4.718328197579740313e-01,-2.039151526259017633e-01,2.643524479582112230e-01,-7.344425089913686477e-02,-6.986763442384650302e-01,-3.045042523347286090e-01,-1.960762862698466891e-01,5.387616598457699302e-02,-3.915640854145465144e-01,2.399868188522801329e-02,-1.156534382492842988e-01,2.551202784407590185e-01,2.490285591292154543e-01,4.500971367810330803e-01,3.932475050647904480e-01,3.867937165613161837e-02,2.158243028433992072e-01,-1.904805651845824233e-01,-9.376814164213591318e-02,2.726340961263958307e-01,-2.521754044314601304e-02,-3.769424358391724184e-01,-6.254497795543245697e-01,-4.627550139221410230e-01,-1.341404703137293875e-01,-5.371178674043999290e-01,-2.957495610766062710e-01,-6.493836519494668169e-02,6.287867081081392751e-02,-1.324620270014839341e-01,-9.743177413231841888e-02,-4.261280006251555452e-02,-4.631825226439176824e-01,-4.602610348978799504e-01,-2.569142770711052223e-02,1.151303554758548175e-01,1.014248456976914181e-01,1.797478213032746852e-01,-1.814577454184302108e-01,-4.113540176443440388e-01,-3.587369277792591959e-01,-3.627733692651832764e-01,-2.592688275206647686e-01,9.216625170172609849e-02,4.619373373964392321e-02,-4.419751195524067588e-01,4.699104250589791754e-01,-1.436709489184232191e-01,-4.053175047631661365e-01,1.487772293373140764e-01,2.584326544267983028e-01,2.971631227995168434e-01,-5.154202415163606776e-01,7.833579822217383304e-02,-6.920690615543159674e-02,2.059161746144346772e-01,-6.729759788737273984e-01,-5.342018594812885102e-01,-5.970604472814972086e-01,-2.869314668480844044e-01,-1.194748648476623432e-01,-3.308767048351230478e-01,-2.241146339286153311e-01,-6.611649929558619521e-01,2.939686388357367619e-01,-1.976853766023492220e-01,6.756821390181495801e-02,2.414851738640386436e-01,4.739217696990308815e-01,-3.615335320840496469e-01,2.201681645170099066e-01,-2.940156515490758848e-01,-6.783923112046033599e-02,-9.383881636440714880e-02,1.129374593964262846e-01,-1.647822616074708091e-01,2.701717037120951459e-01,2.489177710397515175e-01,2.277366076281285290e-01,-7.354556897189437614e-02,-1.326473871891033496e-01,-3.194941212798288466e-01,-1.280254677588515411e-01,-5.202770155047622413e-01,7.805211249254909167e-02,3.035145200980056326e-03,-2.258792950529582011e-01,2.047226859115827691e-01,-5.330920946737576216e-01,-1.084234767523783588e-01,-1.514188581213225457e-02,1.382755530443438852e-01,-5.205538994486281767e-01,-3.267385960382233057e-01,2.217679080936824088e-01,-2.093078481358721099e-01,-4.687118569394076451e-01,-2.702853199441255239e-01,4.034297272881602336e-01,3.139489870943125704e-01,4.166809687581701782e-01,3.218750515018592995e-01,4.237091210472591629e-01,7.404521115992154789e-02,8.435744272463793769e-02,-2.566175354504152128e-01,3.038681898831959161e-01,1.162374393339160811e-03,-2.680321190257802244e-01,3.609100657175390858e-01,-2.704482440246261943e-01,1.011454313704830132e-01,1.522160816395076548e-02,-4.609843744638126295e-01,-5.614262267629945846e-01,-3.977608952055470271e-01,-1.671483023475771879e-01,-3.733626332853410834e-01,-1.678835248326011886e-01,2.289454462566892223e-01,3.268873855813489437e-01,7.419919605299812870e-02,6.599694981769513302e-02,-4.933080578045658249e-01,-1.643993656624042066e-01,2.218313786754733466e-02,4.484098950802035688e-01,-3.727641478038707934e-01,-2.696728740142037006e-01,7.299365858299175502e-02,-1.454748618661417386e-02,4.203007751631377964e-01,-2.050316751232714174e-02,-4.452582456150704360e-01,-5.218741282399392833e-01,1.392449962564951405e-01,-3.895731972643026730e-01,-2.392537842746954579e-01,-5.568187703258065113e-01,6.987650034877510019e-02,1.884434881058954514e-01,-4.809756693300641373e-01,2.762119462943490311e-01,-5.167635469790401448e-01,-3.776924392099552663e-01,-2.257316384395684494e-01,1.361292413907638221e-01,-4.887244641638072151e-02,2.884998362229072577e-01,-3.881659956189991156e-01,2.667407799175743333e-01,-4.482231392896254829e-02,2.744248763572925132e-01,4.777789036899091069e-01,4.977510411027286780e-02,-1.087640336852118139e-01,-1.091211820646137004e-01,1.896630736278452287e-02,-4.404113273040578536e-01,-8.883226872078464620e-02,2.570695278425566555e-01,-3.580251128640762337e-01,2.999260911590150291e-01,2.849366757882176304e-01,1.252830266585486796e-01,-4.622351680947622277e-01,-4.644349837846872137e-02,-5.275152066752891722e-01,-2.713119935069101540e-01,-4.556444266155562639e-01,2.488937658542555650e-03,4.962268832603598107e-02,-2.139864107762774470e-01,-6.754208627238374174e-02,-1.561072053349791822e-01,3.237155617853471057e-02,5.856921890913983908e-02,3.779744312018546437e-01,4.570964519216950683e-01,-2.841521324508944346e-01,-1.083818994703528577e-01,4.207266327975792697e-01,4.538045601894052372e-01,7.059953502935524539e-02,-3.887155913313387889e-02,-8.438717473969810368e-02,-2.778296175442764859e-01,-3.641719974189543407e-01,-5.040219749351866341e-01,-3.203473375560750291e-01,1.030430684977884787e-01,1.886970732826484531e-01,1.417810294882072275e-01,1.546628414785007344e-01,-4.050055527325137072e-01,-5.160449545017655737e-01,-6.959610947851823104e-01,-3.342269639353567245e-01,-1.910860307287111370e-02,6.740445718188711743e-02,3.040157948450453174e-01,-1.772396346913454601e-01,2.566065572953497020e-01,-4.679727384199007800e-01,-4.655294832957528328e-01,-4.071753207712680567e-02,4.557795701919735709e-01,3.179624741978289149e-01,-1.258176082476704927e-01,-3.462172700750388854e-01,-2.800887715200061079e-01,1.301426689747674503e-01,-2.450355085497856744e-01,2.907542284393024867e-01,1.266003383512504521e-01,3.759068539428607192e-01,1.970515055868490850e-01,-2.666236676811784001e-01,-4.734462348859882486e-01,7.330998027857765775e-02,-1.595094258480051763e-01,-3.627632425711716513e-01,-3.874155899551576243e-01,-8.888417655664697381e-02,6.068047482770481948e-02,1.058691966199965251e-01,-4.624111365172401400e-01,1.944287417830304621e-01,-3.679529299591213776e-01,-1.657361631374506539e-01,-4.968948968626629714e-01,1.341646162193523284e-01,2.314874726446086439e-01,-1.475413252157086463e-01,3.275546376953858974e-01,-2.766323751405628806e-01,1.963942467221706512e-01,2.265588730598789569e-01,1.617701978855387579e-02,4.573765203593102013e-01,-3.267974877069332873e-01,2.147477424210512686e-01,1.026119334192937549e-01,-7.788642646514311318e-02,3.332514339388906732e-01,-5.594401105323004719e-01,-3.576003047972498017e-01,-2.394987162660421331e-01,3.282816276891174778e-02,-3.525451353483421424e-01,-5.408763527693325468e-01,1.862782991160170099e-01,-2.267011427809111912e-01,-3.884486014511668306e-01,9.814110156894993720e-02,-3.458349752090410512e-01,-2.467356119167121720e-01,-5.423582530956330139e-01,-4.071720695149497193e-01,1.596359999306827815e-01,-5.039734377733325055e-02,1.845613888577849193e-01,4.914071297212698752e-01,3.578701392554507477e-01,-4.426090861537665955e-01,-1.134047113910301025e-01,3.221899373205944772e-01,1.531792720388032158e-01,-2.831624048285566464e-01,-1.288284922936493715e-01,-3.062473215282233707e-01,3.111438569907293838e-01,8.943985532211444489e-02,1.958182960253742333e-01,2.529845525074848611e-01,1.661197318899718112e-01,-5.243544935051457356e-01,-1.968314285576208689e-01,-3.242385353544250948e-01,-1.828040133774482684e-02,2.074142751819887942e-01,2.375061703062565643e-01,-3.957926526836365033e-01,-3.388327319296378648e-01,-1.491953826490201029e-01,9.511059001642314936e-02,-2.061447195063725035e-01,3.524210373338317326e-01,-4.951408964732408324e-01,2.293482246636084632e-01,9.698206621663511828e-02,-4.607259187257168875e-01,-2.537675516904034506e-02,1.629132670856556653e-03,7.771390331259173112e-02,2.480009666459063455e-01,9.907374782363764787e-02,4.486401272534370488e-01,-3.518408836563226560e-01,5.295639974731870120e-02,4.452258826417395121e-01,-5.145060645586283510e-01,3.516355414959390635e-01,-4.685268235133557280e-01,-5.049974543161609569e-02,7.806923567019305454e-02,-5.252611358158476573e-01,-6.980236490301694463e-01,1.025941961452681433e-01,-3.849722930361170747e-01,2.508876086724673993e-01,1.929537959847859030e-01,4.760405704466594973e-03,-3.927391065228895417e-02,3.311501284550659174e-01,-1.565760488224474112e-01,-2.721283951662576972e-01,-3.194432387644978166e-01,-4.440102073363410562e-01,-2.048721613283313869e-01,-2.857339618658336633e-01,2.772796983400308557e-01,1.636528885186533111e-01,-1.588523914544176796e-01,-3.737773147007769636e-01,-2.888316699168705370e-01,-1.494423842975289296e-01,1.593284061072970104e-01,4.319027863592435346e-02,3.458679320616074304e-01,-1.007037155331346190e-01,3.526248906506071479e-01,3.251400409487433252e-01,3.814057098319492134e-01,-5.427208481098056980e-01,-2.836057343185844834e-02,-1.637525738039926904e-01,4.838656165153555622e-02,-6.191402722405468101e-02,3.652326661960159093e-02,2.799262768799682388e-01,-1.147453068174995872e-01,2.152867905420858263e-01,1.160467037470073598e-01,-1.709854665867918677e-01,2.535910617480685580e-01,-3.005353832381034151e-01,-4.052447934424732168e-01,-1.327561876015482256e-01,-2.949602824371042598e-01,3.107328095673030921e-01,-6.581726251572193875e-02,1.323762215379198359e-01,-3.519070297243517831e-01,1.646025795983936113e-01,-1.015396069625859599e-01,8.292556520437334433e-02,1.300950246889495676e-01,1.777625705232162012e-01,1.343276903135645073e-01,3.752598984693386597e-01,2.005074843206897939e-01,1.423498213633243581e-01,3.878529774493797433e-01,4.124250853088962110e-01,1.867314705819287379e-01,-4.793725158816530829e-01,-6.218848650872099010e-02,3.353509669199127713e-02,-4.008650322942303168e-02,2.338961846314274451e-01,1.824924186331586817e-01,-1.708599109294622054e-01,-4.294141149887985565e-01,-2.243741526805377584e-01,2.942855893907438403e-01,-4.489763810819761836e-01,3.168261566660540707e-01,-2.073677345426006291e-01,2.414893783092444401e-01,-2.838021134606689699e-01,4.393149001225998829e-01,-2.504918552243730612e-01,9.647958559766861564e-02,1.744853317163674866e-01,3.268764305307683138e-01,1.861515690121654312e-02,4.686540424729576659e-01,7.478282939167636700e-02,-3.998931344639253260e-01,-6.065011296406344621e-02,8.556704730955065619e-02,2.563845454416186498e-01,2.471288824929419037e-01,-3.979666030425105250e-01,1.025345747582958797e-04,-4.730860297557178962e-01,-8.753954183267748101e-02,4.841399223164082333e-01,6.014569797265033324e-02,3.066110870586783443e-01,-3.306587288602109709e-01,-1.541807730809512389e-01,-3.073157231041093174e-01,-4.128233852832915440e-01,8.130211876125589820e-02,-6.865692269072555531e-02,-4.266750295376076085e-01,4.326630020926102160e-01,-9.177683096950386976e-02,-4.777064712241715361e-01,-1.296940349806840753e-01,3.870915230555879716e-02,-3.672958918535551009e-01,4.115939844014389615e-01,2.666280609287642878e-01,4.201121254085925238e-02,-9.625507272297338657e-02,1.300246008802653785e-01,4.048186477545077655e-01,-4.712823964109325026e-01,-2.772919733201670844e-01,-1.214247148875469001e-01,1.424589443208246209e-01,-1.394374585420095070e-01,-2.587528800273800056e-01,3.031306460057455743e-01,-2.264086596455098244e-01,1.601776148798277899e-01,-3.073414159766891252e-01,3.076243078329993219e-01,3.206045509719263054e-01,2.785460082361689294e-01,3.151253119513663936e-01
-3.996816687809682245e-01,-3.254871310633116188e-01,2.191546868658360570e-01,4.540416383898936425e-01,-4.628118873080224738e-01,-3.879012802093595447e-02,-3.493976982339894732e-01,-3.897204685363706567e-01,4.577538288258944377e-01,-2.110513711360622810e-02,-1.077045077201676804e-01,1.081516903928643469e-01,1.427297807325839663e-01,1.168487526482468730e-01,3.067385661262651553e-01,-3.573478607738647117e-01,2.354804423338881514e-01,-1.641824608830393384e-01,-5.052283639856943731e-01,-4.887650229523465839e-01,-1.102525427705433880e-01,-3.608166949976505666e-01,-3.731614488416802322e-01,3.861887750082148019e-01,8.586336478798264893e-02,-3.031210989334668857e-02,-4.286097370351601432e-01,-1.435768629507210292e-01,1.443392241882299754e-01,1.514909176469686480e-01,3.249623036013349342e-01,-1.446607484472797189e-01,1.127092183981867959e-02,-4.597819797223425820e-01,-2.518188933425312692e-01,-2.712262236161698259e-01,-3.068437034518899376e-01,3.056575148030611366e-01,-4.175602031641329481e-01,3.463626405988631252e-01,2.569526677197350173e-01,-1.320196006145802348e-01,5.185008291417878175e-03,1.220831850561795856e-01,-1.461598051017159658e-02,-3.119752550580079942e-01,4.382024894192999565e-01,4.421485628284217984e-01,6.851361272140776837e-02,3.915341662697321284e-02,-3.351865142436569744e-01,3.053822112244991560e-01,4.793005871820325003e-01,2.096124592029147138e-01,-6.287139698633707752e-02,-2.366576833871939511e-01,2.324498794646505662e-01,4.166458358804000506e-01,-4.157416298488343931e-01,-3.795109956518135097e-01,-4.027004172059116538e-01,-2.284146019202399902e-01,3.646490660180168875e-01,-4.677862180924122759e-01,-3.723015072317936713e-01,-2.677999025492383556e-01,-1.456416804198800152e-01,-1.045595488945727514e-01,-2.993258401317867579e-01,-3.815254286458855670e-01,1.715289420685646993e-01,-4.966038446833190845e-01,8.487255433696741513e-02,-5.161793141237317611e-02,1.373787189501814339e-02,-4.761236680643425312e-01,-5.366716718664873431e-01,-3.438016349300938579e-01,-1.009016786912599606e-01,-1.915559448195209846e-01,-2.470417847036924797e-01,-2.127112073365969649e-02,1.368293955592501422e-03,2.312963658694554558e-01,2.158697484165338354e-01,4.537697541602260243e-01,-2.384441913323439091e-02,1.961849327878384674e-01,3.818200755231077603e-01,-5.161404978078966144e-01,-2.199142533806242306e-01,1.449216354693366182e-01,-3.462515536721095244e-01,-6.126098094319090137e-01,-2.061924939232581411e-01,-6.115272994983483174e-02,2.679670865061257734e-01,1.971210877583909893e-01,7.922804359237249627e-02,-9.376991091014614810e-01,-1.096877870058550059e-01,-8.097510720139401430e-01,-1.588455662929586232e-01,-2.635929506340713435e-01,2.154122940033123268e-01,-6.584232936991226692e-01,3.431818152556034840e-01,1.599526854411416066e-01,-3.850614671712603854e-01,-9.928977162627096453e-02,-3.449974936508154455e-01,4.865558989152714287e-02,3.303349294946618386e-02,-4.441825999689273385e-01,-2.335252643685550022e-01,-3.135798725265543929e-01,-2.086150548431437990e-01,-9.223721719394123442e-02,-6.977210298960709878e-01,-5.917775260197736253e-01,1.155394352266160274e-01,-2.147261928467323888e-01,-4.464375786779311017e-01,-6.967107858195657755e-02,-5.665640682808648076e-02,-2.080808373764317931e-01,-5.819224678368524195e-01,-2.890943160869870465e-01,-4.397603747963580445e-01,-7.380798765346915230e-03,5.085960350325116064e-01,4.205440829378122303e-02,-1.935758242337828616e-01,-1.311975733810245848e-01,1.373036716331840490e-01,3.226112525471909742e-01,3.462442038913658982e-01,-3.837189509472189175e-01,-1.018186170575549471e-01,2.604969990236434829e-01,1.022038129643553506e-01,9.118058133003550947e-02,-4.812896076002105561e-01,4.462789003246920294e-01,4.152236581136311000e-01,-4.255077447025563675e-01,-5.557334584142200606e-01,-2.302430623793824127e-01,-5.574214769211894849e-01,-4.387721003184627544e-01,-4.992034719630212836e-01,-3.262316148485094325e-01,-7.992623778842381510e-01,1.984977880869121525e-01,-6.827013407518504051e-01,-1.137133622072820927e-02,-5.717602076627579244e-01,-3.152903159141248746e-01,-2.233112779739171994e-01,-1.270556756163781220e-01,-7.459820143428390615e-01,-4.006361364147534299e-01,3.921548578200070301e-01,-1.543581509399018781e-01,4.141619401832148384e-01,2.785079910612515974e-02,-2.907033626188045283e-01,2.675557767832415501e-01,-1.990909358237609172e-01,3.894937205610053410e-01,-1.442367858075388476e-02,-3.467257735337460622e-01,-1.717697482538075304e-01,4.863864473710519665e-01,2.559712119413299347e-01,-1.371620323251692974e-01,5.924568234400168915e-02,-2.907714049881701124e-01,3.648802851161394439e-02,7.218913182262313988e-02,1.617865485365503619e-01,2.139227643726812345e-01,-6.051654004095292742e-03,-4.679676411554687943e-01,3.319468779364045385e-01,5.127003520542069426e-01,-3.505829532587290132e-01,-1.283381506792928839e-01,-3.761832527205768995e-01,3.160664729987154309e-01,1.971814129985524633e-01,7.508548670458872754e-03,-4.214278492594582537e-01,5.680216341422681531e-02,-2.014005252849329353e-01,-5.611373174841521871e-02,4.303744564278692841e-02,-2.081191549647050665e-01,1.313118189084882051e-02,3.247659724035830697e-01,-1.127581173977245388e-01,2.933651752080921118e-02,3.786432217975139181e-01,4.248081312798849818e-01,-2.322824328786516068e-01,-6.691387618945222882e-02,3.443474793476897222e-02,1.238855377492505822e-01,2.553849467409929352e-01,5.433611564824333273e-01,-7.012504998903187348e-01,-3.325824411201467462e-02,5.474937654066035497e-01,2.368990449500710249e-01,2.909774958470724426e-01,9.042454263003044113e-02,-5.226892993586013114e-02,1.847570117167794124e-01,6.270670266339874177e-02,6.383838172384564968e-01,-1.060531465990487421e+00,-5.063735618730215160e-01,3.285522709558445498e-01,-3.865683551897305947e-01,4.745385354973016279e-01,2.107461104045311659e-02,-2.897241550708400948e-01,3.591166152005523856e-03,-5.119721720317642610e-01,-2.820982181388735355e-01,9.498441833659583555e-02,-5.446150217347760503e-01,-5.398047044965326169e-01,-3.249821572026442285e-01,1.986860707147356242e-01,-4.413438947622853048e-01,2.458585420046873748e-01,2.206441671178396846e-02,-6.451343716799598504e-02,4.988607028692185197e-01,7.215420735418467402e-01,3.550839451559614779e-02,4.691422063679540622e-01,1.005090202698227242e-01,7.449249205540706131e-02,-1.145569485985259081e-02,4.547387967205350212e-01,6.914449631606006674e-01,4.193045700052194791e-01,4.401636262073460037e-01,-1.049665794999147528e-01,1.578098302089845362e-01,-2.950524785893594570e-01,-3.693964734893067647e-01,-3.879491123205192071e-01,-3.885721847386947037e-01,-5.988726211136792266e-01,4.762707680453343029e-01,-2.942404964118957578e-01,-1.973501067245351029e-02,-3.010530281294282462e-01,3.938991560697416849e-01,-3.051674571948352344e-01,6.865675743164897926e-02,-9.157635517107104439e-03,-5.281943827140687109e-01,-4.752091784796376173e-01,5.795209636468676706e-01,6.913487141562807414e-01,9.217301558942135875e-01,7.404441804391351800e-01,6.896325867212841354e-01,1.217914169091767196e+00,2.148496054849436676e-01,-3.709134578801912691e-02,1.205190458501555900e-01,8.114441308008341069e-02,-3.312686041837056838e-01,1.901309687196801185e-02,2.968320276956720738e-01,7.463115943980967726e-02,8.710173156566090868e-02,-1.165883900689131947e-01,4.667806638147924125e-02,-1.850108629175350461e-01,2.149950648303851908e-01,-3.560121549912590444e-01,-1.231069841552173555e-01,-3.827966634878103291e-01,7.282683440540256570e-02,5.617671855298596029e-01,-2.336679289074761190e-01,-1.901830825712299833e-01,-6.360040962577016010e-01,-1.790645357894549705e-01,6.802322304627412830e-01,9.706407420635221328e-01,1.094864168800158133e+00,7.772835249602705332e-01,1.193067321206851661e+00,2.307094285157473279e-01,3.141626781551086212e-01,7.721133251261880215e-01,7.985711638128430989e-01,1.900606258649933655e-01,4.778299057565075780e-01,-2.107495093978638545e-01,4.521259229258939860e-01,2.069803101323947625e-01,-4.178770387187502044e-01,2.580783051330174382e-01,-5.332749083596604045e-01,-4.684626478960070561e-01,-1.420803645964915651e-01,-3.667407988667459318e-01,-8.901308400515785257e-02,1.300270091732159405e-01,5.641886617563048045e-02,2.160010392074111774e-01,-3.989630108202106840e-01,-6.010354864624366522e-01,-3.571266360686248809e-01,-5.392264902271208804e-01,-4.874637694101718877e-01,-4.182140131442625974e-01,1.898839933200541230e-01,1.390917398201865773e-01,3.610798854065455088e-01,3.747494373273778101e-01,7.424196961976989861e-01,4.043695181780699865e-01,8.104366323245060233e-01,-5.784493415252943693e-01,-6.048163377792472595e-01,3.379603877256370098e-02,3.998254376244867458e-01,3.258261699762923236e-01,1.639232294681297331e-01,4.247887999443295537e-01,1.400792265980398410e-01,1.382575633770498080e-01,2.289813847632213573e-01,-3.421651455764564975e-01,1.650543406966603899e-01,-2.918147698760600872e-01,6.544363786632428903e-01,-4.004657917398261879e-02,9.106422100473593462e-02,1.565355190099130267e-01,1.275562335573814932e-01,-6.462122264567384811e-01,-1.166154272433804095e+00,-1.036726605387976230e+00,-4.795029427071708095e-01,-9.620752758395599569e-02,4.947468574366387789e-02,3.270235196131911493e-01,2.418081015978158499e-01,3.756269905978611989e-01,5.713232307147770445e-02,-9.476815917412258206e-02,1.733715284891099717e-01,2.572703061795864610e-01,5.107767072157638755e-02,-2.837088281832765846e-01,-7.755978216090776700e-02,-3.672376363145022915e-01,-3.889366312026081296e-01,7.269941571309405104e-01,7.418365126817134669e-01,5.353528597055634553e-01,5.507452004344821628e-01,3.207999838814699078e-01,8.244336180173930106e-01,9.207437913005732666e-01,-6.016728768034497188e-01,-1.287004199002981908e+00,-3.713651796224154422e-01,-2.898476674489322003e-01,-1.425843310711283340e+00,-1.335910161201841806e+00,-6.751610959210097018e-01,-4.376104981728238807e-01,2.151591147125524739e-01,-1.349812913877309131e-02,3.844597078436218923e-02,9.846446224705708294e-01,6.541591474566115227e-01,-1.887430393899371950e-01,-2.878902404329084508e-01,3.394002624551207825e-01,-5.769974811495585942e-02,2.662222011961596843e-02,-4.383431533744310271e-01,2.394623045117064142e-01,1.189022644125571904e-01,5.668066370447747415e-01,2.933003643420802331e-01,6.722254184891478523e-01,1.011289916967575531e+00,4.068828583325200254e-01,7.063596522967105495e-02,8.948711160378998164e-01,-6.983650940657024631e-01,-8.123647727963668741e-01,5.876707998860373344e-02,-4.291999119869422952e-01,-2.807930908083586807e-01,-9.319637622734556759e-01,-6.382208485486888794e-01,-2.988194485500148545e-01,4.895152563809134216e-01,2.590408428943816732e-01,4.233840121858542527e-01,1.567401953431633577e-01,1.903221119175857456e-01,-1.806667239065737063e-01,-3.924888411976412694e-02,3.407702450165818742e-01,1.603656688490177618e-01,4.079926527630091670e-01,-1.463711076144381951e-02,2.699574893488430605e-01,-4.086975813001325064e-01,3.553472308841398308e-01,4.144973341852018489e-01,-3.157664981483592620e-02,-2.222929203228410713e-02,3.066393906208064180e-01,2.366561713252071097e-01,1.044208284182533308e+00,-4.186314697112482053e-01,-4.513481135023632018e-01,-4.363134178548744302e-01,-6.300518613562896553e-01,-3.271029212558378418e-01,-1.736263526934739954e+00,-5.236296961902922042e-01,3.235195178306593533e-01,-3.833533578806964104e-01,2.444907597065859028e-01,-3.384503864777384519e-01,1.370307257030515813e-01,1.538769210861403447e-01,-3.761008414629363750e-01,-4.043380548423380211e-02,2.083324204527586265e-01,2.469878714133019737e-01,2.854647497295637604e-01,-5.009356772336326369e-01,-3.188591904079828288e-01,-6.911953704547516564e-01,-2.064602980180544473e-02,3.331176498682889009e-01,-5.532808440255176929e-02,3.337088703113435528e-01,1.059084412646017936e+00,4.516454632787408885e-01,8.622716852967695633e-01,3.440815716563900839e-01,-7.977273577271838390e-01,-9.764276646931906445e-01,-1.112672125990567640e+00,-8.363751387800441028e-01,-1.108800781412055292e+00,-4.433330390874304361e-01,-7.257061114645090016e-02,-7.406805159941060035e-01,2.422592548034583904e-01,3.259126317301069276e-01,-1.711422479267203922e-01,-1.392110830952897164e-02,-3.502010605584403580e-01,-5.502631372543984600e-01,-5.944997238243419080e-01,2.997568334557044762e-03,-6.969533838177122131e-02,1.376478387709113016e-01,6.773971684544496941e-02,-3.125170245552654213e-01,1.109035930604691939e-01,2.259133255112771577e-01,9.251316143405767523e-02,-1.681770895878293981e-01,-1.536262462274553819e-01,6.135937713599478593e-01,3.340441686772082641e-01,2.450279761497966072e-02,3.389169618289826214e-01,-4.170819687496449824e-01,-3.836640639792462393e-01,-8.093135697045874544e-01,-6.445640538865139435e-01,2.232128845753009461e-01,-9.903880595672688580e-03,-8.596004627617161165e-02,3.556843557309405934e-01,1.485292627627139983e-01,7.094795116247436528e-01,1.370199732672705908e-02,5.170382946190377194e-02,-4.884289822696046279e-01,2.247975541179524639e-01,2.716128655411094717e-01,-3.683479781305077361e-01,-4.318978965576756868e-01,5.000336837406822027e-02,-9.456406696521918454e-01,-2.725818454035895400e-01,3.063979381262106894e-01,-3.819955396776680279e-01,-1.409985296928423504e-01,5.959480326775609127e-01,4.477973693569647362e-01,7.135982532649389753e-01,1.142878427082738346e+00,3.430491495517621892e-01,-9.347946700720427549e-01,-1.443430954556057300e+00,-1.369428231549954855e+00,-8.677804887898869779e-02,-3.017783307495295331e-01,-2.831551196904672496e-01,-8.373121865195881641e-01,7.180379046336647642e-02,-1.834568847594306162e-01,-3.910394793752259290e-01,-2.992662791590390836e-01,-5.949803985969700504e-01,-3.915481754488981947e-01,1.157351542756814428e-01,-5.289855984395057664e-01,2.195608333834530579e-01,2.049066954816292363e-01,2.740697492593029971e-01,-4.702101544230447711e-02,-6.988003220050352793e-01,4.352589712001830868e-02,1.780468915928329066e-01,-3.309463955656401918e-02,5.148542045980927240e-01,1.138051554050888287e-01,3.209859815565050956e-01,1.371036810437747056e+00,1.045113386332807925e+00,-9.388477976998037544e-01,-1.591452648401209480e+00,-1.126816625640159719e+00,-5.385996503830179361e-01,-2.219092043337729248e-01,-1.722076392124122779e-01,-2.453154478985941078e-01,-4.145608434958125699e-01,-5.217084271144412089e-01,-1.367901121608596782e-01,-2.829319750167568204e-01,3.422974900594759860e-03,1.913274664160266592e-01,2.649247381302338722e-01,-3.127131124504337056e-01,-1.581760870875921834e-02,3.032601285318990356e-02,2.217434822603628619e-01,-6.873042798400765818e-01,-6.103566073833609495e-01,-6.853858313014438153e-01,-3.340324329446788254e-01,-3.144764533838640963e-01,-4.468628132702061051e-01,4.060033442910728763e-01,1.100770907900784579e+00,1.635341117382813847e+00,1.213229866627940856e+00,-2.011604603673955161e-01,-1.667603414381022553e+00,-1.153990005620516790e+00,1.073581569674698366e-01,-2.175891663820463118e-01,-7.251152711414772523e-02,6.356010342030772586e-02,-4.940305975473593958e-01,-6.490342600707389442e-01,-5.920971845424529700e-01,-5.570769837849154360e-01,3.367840521461136216e-01,4.023983998847351362e-01,4.920607638626698921e-01,3.616955173009064328e-01,4.583993642830366255e-01,2.713490331785646803e-01,-3.242731314134789794e-02,-2.513528955481436622e-01,-1.563335053777435424e-01,2.253683646353725478e-01,-3.780067945517781580e-01,1.530469956269280840e-01,3.080190254831102759e-01,-2.601643672361680926e-01,9.610488321458972028e-01,2.027191503671093020e+00,1.063581358135285093e+00,-9.779174621593224037e-01,-2.005742229242136965e+00,-3.381544564299073241e-01,-3.541632498511008698e-01,-6.535890480072935604e-01,-8.133093135454674272e-01,-1.325495245264419752e-01,-2.203458318632478541e-02,4.626896900158639636e-01,1.161326414322380179e-01,-5.977114624976364449e-02,-3.545157903619904904e-01,-8.035652807770032879e-02,1.350508386371571112e-01,-1.749896126398320373e-01,1.272091517856593912e-01,-1.910633620245922315e-01,-3.502057832649577707e-01,2.756171571492527783e-01,-8.846201808779833309e-01,2.553968495816985596e-02,-2.303288097639676346e-01,5.739348317788652842e-01,1.344104049714754945e-01,4.954910901257200129e-01,8.844274030738257242e-01,1.046126961849607628e+00,5.594271342190334506e-01,-6.204963710205783078e-01,-8.702349173930914450e-01,-2.213177622673199174e-01,-6.500913934047442000e-01,-1.053265390882155428e+00,-5.043592509919104794e-01,-1.046446237189307266e-01,2.580802823710218186e-01,1.452763328971583834e-01,3.395930945310681737e-01,1.783475450099956949e-01,-1.171852739511826946e-01,-3.285526960441236266e-01,-1.064514226325084384e-01,-1.441432024951446733e-01,-1.118866529216643035e-01,3.793648155143709566e-01,1.823075415887774262e-02,2.370112259739263760e-01,-5.091362286578918761e-01,3.348221523893490370e-01,6.971993402345662005e-01,6.058844081831406096e-04,5.627244442737175945e-01,1.302621092837296768e+00,9.869776125877527395e-01,1.030567226391723823e+00,-1.383569079991778805e-01,-4.317607243498256531e-01,-6.967022148177606233e-01,-9.780060926167764013e-01,-7.589741298068267694e-01,-7.165847584127801317e-01,-2.803778964983531519e-01,-8.283643614923608123e-01,-6.506530941802535217e-01,-3.779781765751886180e-01,1.287481698290701138e-01,-1.631807497208443425e-01,-5.300300184734412223e-01,2.591248666074612572e-01,-5.868927953439764811e-02,3.341705170008317793e-01,1.873940647675077509e-01,1.465805386342603489e-01,-2.065227853259055946e-01,3.893612499801422100e-01,8.665371383980299824e-02,3.873409441494125582e-01,4.564232938819018370e-01,5.589298168640671749e-01,7.851259805729551289e-01,3.598533884400003102e-01,1.015857758396407906e+00,2.538961139032910319e-01,-2.612443391386842229e-01,-3.592681414388746997e-01,-3.136429903373110784e-01,-5.690670019326002915e-01,-6.496425920533251963e-01,-4.402717230831344475e-01,-7.245020666291603906e-01,-3.652092768112533694e-01,-1.099617258469707121e-01,-1.378720909571505282e-01,-1.257285578728081082e-02,1.075406466129597560e-01,3.024581736283972755e-01,1.661899582923319074e-01,4.535030584510475471e-01,1.733704227221795069e-01,3.327412821651303063e-03,1.050556926364345361e-02,2.697649203888701774e-01,-4.073759307868329849e-01,5.049559277164278326e-01,5.197344632142838344e-02,1.079947603625849711e-01,4.510185457645244922e-01,-2.506750718451977167e-01,-3.919352382901514220e-02,-4.602394993636653719e-01,-4.554582029112281827e-01,-6.768137922998016531e-01,-3.211240944502218309e-01,-8.540843179896360216e-01,-1.098142417978427154e+00,-8.054881247954893686e-01,-5.284146188435863145e-01,-5.579650256951637077e-01,-5.724626738550540050e-01,-9.155886288245540516e-01,-6.017707440040472866e-01,-6.139792627716038342e-02,1.783595815036228549e-01,2.060063062168161485e-01,-1.724515478685833547e-01,-2.875462498297981506e-01,-2.392637697165908017e-01,2.354832912706064652e-01,1.966413849079591269e-01,-6.461162648271795428e-02,-6.869217985506797207e-03,-3.342452095387359323e-01,-4.818074495505424160e-02,2.922994436553491004e-01,8.787819118639028648e-02,-1.255960451584455240e-01,-4.852431426644332468e-01,9.390555941052418365e-02,-2.743795090150267235e-01,-1.980139062414491558e-01,-7.021613408812160673e-01,-2.365445195349448193e-01,4.425461409734847418e-02,-6.216286409816481617e-01,-2.024750864016298113e-01,-5.889352592042206291e-01,1.493723345919018702e-02,-5.443764589379500585e-01,2.600831693530368804e-01,7.106905479255972748e-03,9.063359307289733935e-02,1.373467225888991283e-01,-4.222459557825847254e-02,4.812812998187080415e-01,2.176441642030502166e-01,4.450754969641920189e-01,7.718789521163507694e-02,-7.145221693133260721e-02,-1.831021578517078030e-01,2.833052994933986032e-02,-2.238310030030460362e-01,1.789733353175229913e-01,-1.216868130322530245e-01,-4.847967531774468042e-01,3.340165588120576068e-01,1.151840346925166042e-01,3.624137062713138069e-01,-8.651013275648182510e-02,2.566585497907515959e-02,1.237211669489909072e-01,-1.187557658121139170e-01,1.513842090760514174e-02,-2.753990618188403849e-01,-2.510698691915593250e-01,-1.310466575231217790e-01,-3.879346675856131799e-01,2.852608923498166638e-01,8.126099948388197658e-02,-4.927172303659640984e-02,-1.730620087235377191e-01,-4.945259371858869990e-01,-1.953722614899829901e-01,-1.464412586981506115e-01
4.363637078211511366e-01,3.881797439182659848e-01,1.523849760766560479e-01,-5.224007921547594302e-01,3.920144761751386819e-01,-2.270666388295273508e-01,4.531743038166780591e-01,4.548803780708756128e-01,1.952214215849180923e-01,2.128952745641927904e-03,6.312699298135241062e-03,-1.532287908793212028e-01,-2.805090166201337221e-01,-2.178755839359474422e-01,-3.366052853229182240e-01,-5.152296054484318821e-01,-4.811931593639620641e-01,5.080919337869550800e-02,3.383542352034960010e-01,1.993052028042162915e-01,7.965346945872565920e-02,3.796787853668268098e-01,1.017778133314328065e-01,-2.706340799311524603e-01,1.042968138564639297e-01,-2.827532320008450673e-01,-9.547967124865809618e-02,-5.206484911276741956e-01,-4.213990268118008031e-01,-4.164434165810150523e-02,1.805993324823521873e-01,-2.227315009109573640e-01,-4.855443808061418176e-01,-1.407990868691080810e-01,1.591743243190358037e-01,-2.201784241523172814e-01,-6.430029693374687827e-02,-4.180694730194313147e-01,-4.878211742397132733e-01,1.007015283805747230e-01,-1.230934195228562955e-01,1.633989669098495634e-01,-1.161075140952342738e-01,7.908351307874508102e-03,-2.702336709693475836e-01,2.134654675254384765e-02,1.733718978597526827e-01,-3.840886695727405709e-01,1.539055205246749325e-01,3.913680025584952982e-01,-1.573703780437557542e-01,-7.717253599928759755e-02,3.443324696291540366e-01,3.730027542255849871e-01,2.347604018029224582e-01,4.513895536107385698e-01,4.521305740104430426e-01,1.310428804180316098e-01,-1.662394138676676625e-01,-6.622827394797714540e-02,-1.584017880908185072e-01,-9.647688064401334362e-02,5.011647855598881651e-02,-4.724978511865355890e-01,1.720205155818590459e-01,8.839553945536564317e-02,-3.385370324946587184e-01,1.279568195049062829e-01,2.856480388866002862e-01,-1.963444826568516433e-01,-3.731591931469225853e-01,-2.076567005867457349e-01,1.338608166246842979e-01,-1.923476142300137859e-01,-5.436673337660732352e-01,-4.635022710121295964e-01,1.926613180277258752e-01,-1.904672079795689255e-01,-2.701213702490525836e-01,1.603828967133195116e-01,4.617312122156975174e-01,-4.809669196741053754e-01,-5.102040865648654888e-01,2.052471713275197118e-01,-4.230299187509128367e-01,-4.770273854641907119e-01,-1.750103022112204365e-01,-3.572728619694992558e-01,-1.728426002856686960e-01,-1.974714467718174660e-01,1.473004075091261245e-01,-3.264569567971399855e-01,-6.130288831316758058e-01,9.348395491881787700e-03,-4.779774760897523289e-01,-3.209397240353584757e-01,-3.617860852248128700e-01,-2.260230982334997529e-01,-2.252838305090725246e-01,3.491550516491325751e-01,5.961932711454948075e-01,9.957701483153034994e-02,-4.170029389013128057e-02,2.920497890657869355e-02,-6.126374908330287639e-01,-2.166558020936376061e-01,-4.452576887495157676e-01,1.382945652806394921e-01,-3.781142879209443142e-01,-4.133323623641311229e-01,-5.186131042489637751e-03,-2.811416843500920693e-01,8.182448515654218435e-02,-5.203553445301407621e-01,-3.767628819433392340e-01,-3.044841351765570359e-01,3.991351210367671820e-01,4.146087769676335549e-02,3.329005884715181551e-01,1.664120018754123853e-01,-5.359129153341019025e-01,-5.051153600576976377e-01,-7.754354018937881232e-01,-6.382863515872820859e-01,-4.568198997561433439e-01,-6.195628882599628628e-01,1.268001845734919586e-01,2.137907328739270529e-01,5.586606139507086510e-01,8.146837894150670001e-02,1.687002228924180114e-01,-1.324969571064725793e-01,2.745710564156897959e-01,-4.693440514453094958e-01,-1.694119540650628752e-01,-6.837300969738235867e-02,5.627770921326063006e-03,5.719614098024670273e-02,2.363001063717200256e-01,-5.053803847247377856e-01,-1.214443808633842575e-01,-4.006491155674864468e-01,-1.884064071382407224e-01,2.457090802260856743e-01,4.588040153426449774e-01,-2.811153991991357515e-01,-2.312592913176397258e-01,1.861802823570791673e-02,-1.294823404674903464e-02,-4.295976327754396085e-01,-7.506447051313631658e-01,-1.849830281666940135e-01,-8.267608200242805294e-01,8.987132813083723026e-02,-7.169578748409780045e-02,6.501040150568150322e-01,3.341419012461264715e-01,2.299488442439015512e-01,1.032631715901367042e-01,6.153434676071959375e-01,-1.953111070952214812e-01,-2.029139711981323146e-01,-5.440240911387762834e-02,-3.887298225123814732e-01,-3.769139059444072126e-01,1.101357579686055577e-01,-3.118509129986272166e-01,-3.277499074543162583e-01,6.392492340807233442e-02,4.709284523490692848e-02,3.994285828300153662e-01,-1.300524680467799732e-01,1.851554339161432527e-01,1.420908713167560733e-01,2.465052498722427876e-01,-1.423303673722607354e-01,-2.966501429069663964e-01,-3.500819990159921291e-01,-7.502557326523339176e-01,-1.095866109750015388e-01,-5.933986928112272574e-01,5.915503897853083975e-02,1.252749184102490421e-01,-6.375947822524462294e-02,-2.925945174363683288e-01,6.612113358824831533e-01,4.824893968323073351e-02,2.961138846869558194e-01,2.383036223363155515e-01,2.825944731901323670e-01,8.730664100584568932e-02,-3.658207364622758084e-01,-3.396979442851682518e-01,-2.084919006378251061e-01,3.953374954485231463e-01,-2.852895440860898635e-01,1.327876359651236349e-01,-5.785146291918252803e-02,2.802585440695004038e-01,-6.415648817076682886e-02,2.423122447988675376e-01,-4.748966693438624875e-02,-4.106591511278278595e-01,-4.180860060879768580e-01,3.651642377173668075e-02,-3.593993721954856224e-01,-9.992919573832820257e-02,7.790955248693483270e-02,-1.037489496838115977e-01,1.337535496271347046e-01,2.181849246761815020e-01,-4.238346595556533036e-01,2.008153206876052976e-01,4.930045201951046563e-01,9.750752993344061759e-01,5.772014745332733066e-01,7.115366053131717827e-02,-2.455078347875790379e-01,-9.327929712209649671e-02,-2.032832008563401904e-01,-3.467859635909062987e-01,-4.493452363874403943e-01,1.340321485499899046e-01,-3.838820846348803828e-01,-1.937454936128520377e-01,-4.777987602958806423e-01,-2.444606376027224359e-01,-1.898168027147372483e-01,2.140713918573810548e-01,-1.095937882855572455e-02,-2.349322986748615671e-01,1.476057744526273197e-01,-5.385260968736474974e-01,1.495444394508255448e-01,-3.651782535537055896e-01,-2.778473603883992449e-01,-5.763537789040253795e-02,1.589788319134440575e-01,5.169188892565931281e-01,3.644263486548672271e-01,4.509808583977804597e-01,1.072635682782269728e-01,1.255875498747361707e+00,4.818833933055716723e-01,1.833581007606875646e-01,-2.241695119165595107e-01,7.679444258456287198e-01,4.747182824692358083e-01,-2.972522261839020685e-01,-6.799069642667826541e-02,-1.558851616899261106e-01,-3.481199983828071054e-01,-3.474394874935036737e-01,4.675671173786504209e-01,4.508647604178501744e-01,1.449924217561283230e-02,5.791799989478207261e-02,-1.511502748625144776e-01,-1.798662669880796983e-01,-3.697853077665881893e-01,1.940805201648724936e-03,2.662572465016475598e-01,-6.007473168286502352e-01,-3.694564836708819078e-01,-5.971882516163603549e-01,-5.261615311447181975e-01,-3.148429682358440118e-01,-2.125048510734977442e-02,2.328916190736856143e-02,-4.381805574433130235e-01,3.822679002708835316e-01,2.919272805223128708e-01,1.258104335111342564e+00,6.833969918406121447e-02,1.896263164146615998e-01,3.234164822782293336e-01,-3.764825748811401751e-01,1.110813634013056717e-01,-2.708043873099877930e-01,-1.019861961215414170e-01,1.308060806153519273e-01,-2.541188443649713413e-01,1.631303322443180270e-01,1.904487967552931094e-01,-7.320754734109499173e-01,-2.952172156501590150e-01,-5.241349016672286476e-01,6.673164298166710598e-03,-4.544799321751818999e-01,-6.392927672220501123e-02,-7.218748616222239178e-01,-1.347746230845524584e-01,-3.231159540917765138e-01,-5.122391958381439236e-01,-3.712540910077824496e-02,-2.949817690031907302e-01,-6.233136431520948373e-02,2.299616515487439006e-01,-6.135460099003914314e-02,5.547612533924323186e-01,5.457630285307025764e-01,9.939508928760997231e-01,1.708711574933184651e-01,6.842370113866379500e-01,-4.168679773340814854e-01,-2.176967829131425947e-01,-4.771763898560433814e-01,-4.877613684517814741e-01,-5.732833934506686296e-02,-8.895285694680817035e-02,-4.729636972008100515e-01,-2.219687817198200130e-01,-4.363817206568587626e-01,-3.311627227460903211e-01,-4.068446679039725566e-01,6.184672745593299270e-01,-3.012608737313000051e-01,2.050304734984999822e-01,-4.885745757733944705e-01,5.331098758363385093e-01,-3.170484705763313427e-01,-1.256362899433165203e-01,-2.310422095954166866e-01,-6.189534247245512821e-01,-1.747979341460804248e+00,-4.382065501502005467e-01,-2.372928449785731697e-01,-4.313413799566641615e-01,4.027164318163281020e-01,4.858693476599837413e-01,3.578286079098264572e-01,7.413791744318842802e-01,2.851330079669747719e-01,-6.912365997610541157e-01,2.974838880954554510e-01,-2.083991061262148170e-01,1.744078694868455293e-01,-3.043563480369536056e-01,-3.323143204753734037e-01,-3.973676092497606116e-01,-1.727454651338281577e-01,-1.992706283352257968e-01,7.058206951730678913e-01,-1.163811092458148372e-01,2.517547385879809752e-01,1.846013385239554383e-01,2.436336782211128704e-01,5.182741403706571104e-01,5.823490943528667474e-01,2.353538577889870698e-01,-1.315112108544806535e+00,-1.192272297614985543e+00,-1.091723206289856085e+00,-2.022946236948180987e-01,3.515949065022192510e-01,-4.567623397418248410e-01,3.779896238924339985e-02,-2.646301223370043920e-01,2.631080808673840754e-01,3.005755539824281342e-01,3.800801535078569549e-01,-5.932647835087544452e-01,-3.353853415208754574e-01,-2.040931276677774020e-01,-4.385243811714904794e-02,-4.577600135128416514e-02,2.389190958181207081e-01,-3.580896487615720103e-01,3.161623153244261936e-02,-4.933558168171577329e-01,5.131523967266353736e-01,2.611315785699500625e-01,1.427343810869043383e-01,2.829761520471278380e-01,3.469891923892433061e-01,2.435212164451309169e-01,-7.464748770929649502e-02,-9.985602887700972818e-01,-1.519830231096764184e+00,-1.294486736419146578e+00,-1.142666194227966558e+00,-4.654738147052212560e-01,1.705906172385054931e-01,-2.726640506718313595e-01,-2.931298244267858122e-01,-5.004883082740485545e-01,1.673424160352600110e-01,9.054591980533847062e-01,9.593053289010959953e-03,-9.402471684386631487e-03,4.072145286567374622e-01,3.225534638758247308e-01,1.925922048164105393e-01,-3.600610439873513369e-01,-5.066987484618594717e-01,-4.116851443398535926e-01,-2.318285495389713624e-01,2.566145346967023677e-01,1.318443845070624398e+00,3.976191175442424508e-01,6.066865451318412816e-01,2.634084157744188137e-01,-6.643584577546081393e-02,5.077393893155330851e-01,-7.074356874666355433e-01,-1.273437278868077893e+00,-1.330746532033635798e+00,-9.291059365623316468e-01,-1.311863969458513690e+00,-4.900401886854645617e-01,-1.543762977627441413e-01,6.116451854390261150e-02,-2.658546743630104681e-01,6.158873454753311938e-01,3.216917563174327976e-01,6.453555457082235103e-01,6.508945941039495642e-01,3.670850274794012491e-01,-1.896525918702162417e-01,7.367134015237453148e-02,-1.793735494546648546e-01,3.508291295907796647e-01,-1.253885240320334049e-01,-5.533848304491637698e-02,-7.475114241532878623e-01,5.772993459592653531e-01,3.053281857145174749e-01,8.377891889718778184e-01,5.584114022167042668e-01,9.959192825777144487e-01,6.171215914926787560e-01,-3.938836124076148248e-01,-9.009439081431156460e-01,-1.366370565824956085e+00,-1.052572132114146353e+00,-6.369499909899946077e-01,-5.804161425580345313e-01,-3.178756803374273021e-01,-3.609284481737682349e-01,-5.083983397014459893e-01,8.114660549125206346e-02,1.047200554583168908e-01,2.463040356057931944e-03,2.158281481563925630e-01,5.806523592071205497e-01,2.537324264297987075e-01,-6.689317404600765571e-02,-3.284573619442621856e-02,-2.771049662628540244e-01,-4.790713461404267487e-02,-1.328967240745612677e-01,-2.226375348195804571e-01,-5.646444725066039894e-01,9.696439790290921623e-01,7.901680636576975392e-01,6.440000142385470250e-01,6.181510338293545459e-01,3.119910521447363250e-01,2.262256351172580449e-01,-4.637232951616140908e-01,-1.387925303162815149e+00,-1.614301153517329945e+00,-1.267762352943979431e+00,-3.416131938774777388e-02,-5.188261653769137283e-01,7.395367440774704149e-02,-5.541390530018278082e-02,-3.827936126776286807e-01,-7.723914014744054368e-02,3.894519042185623503e-01,-9.340111882540837185e-03,4.139301926176532920e-01,1.770471448243463863e-01,-7.281290724165204176e-02,1.757767158555267606e-01,-5.004183638433196135e-01,-1.467435734058515073e-01,-4.247290376813371848e-01,1.765340905485215384e-01,1.177874440607145912e-01,3.742249270735429900e-01,1.217036106796351991e-01,6.550965893987087396e-02,6.090255571005318558e-01,8.697292544905186329e-01,5.767972636581086832e-01,2.198019715214068193e-01,-9.142721306901221423e-01,-1.776535248662219013e+00,-1.263795246301276709e+00,-1.623291950192015665e-01,-3.074699446819755266e-01,-4.128111723308073300e-01,-7.454427387132742111e-02,-3.912373201767629372e-01,-2.580765387856863713e-01,-1.865133618345930777e-01,-4.756746478204701423e-01,1.358669421454433701e-01,-5.852835833844365759e-02,-3.995770550037622271e-01,-5.756817487767008634e-01,1.224582035116767303e-01,-2.417514638472929300e-01,-1.823785061880520142e-01,-4.725036477482143504e-01,-2.208223388438648460e-01,-5.029199576749293112e-03,2.199195762704977408e-01,1.206611077510491223e-02,-2.481206658856747321e-02,-1.403786750178913634e-01,1.050917948629142007e+00,1.323401900748181204e+00,1.831877544400558055e-01,-8.982774839134283207e-01,-1.597369947004112944e+00,-4.926675763203173242e-01,-7.917553606055484083e-01,-6.450817190981109617e-01,-6.418495525328997420e-02,-9.965393218295177657e-01,-6.511046392151510764e-02,-3.718165135942215760e-01,-3.169330353093207098e-01,2.064452862160173208e-01,-1.606735505723278293e-02,-3.496731897318495763e-01,-1.773440830101555843e-01,-1.680690894600129770e-01,-2.467230989027863197e-01,2.933496785216874181e-01,-1.194456948704274019e-01,-4.507982850836738109e-01,-2.262386647264399420e-01,-7.623025621140363528e-01,-6.064146214283162861e-02,3.612654950605352910e-01,-6.567827503365061825e-02,-2.469410674318370247e-01,2.643896779591591861e-01,9.412956020832546900e-01,-3.760321981262505497e-01,-7.936972415459886410e-01,-7.890854020461337548e-01,-9.533740749522048308e-01,-3.294995372599726635e-01,-1.023633139524849467e+00,-9.951798559930131738e-01,-1.803272183730918465e-01,2.219972175372581513e-01,-5.637482047224581239e-01,1.541728908127277808e-01,2.264401750732271401e-01,-5.268305888172618578e-01,-6.862169415411880635e-01,4.753728436414127179e-02,4.190567471671793331e-01,-4.808922742927824179e-01,4.305562880205666132e-01,-4.868777842662503352e-01,-4.170662029701532880e-01,-2.258536194515813611e-01,1.341935029023683633e-02,-3.408710224094738672e-01,-4.532945440468847953e-01,-4.839487032299257252e-01,3.625567710138180577e-01,3.189321720435026597e-01,4.492508920561298913e-01,9.900183803755044920e-01,-1.363591131129863743e-01,-3.697092522694090388e-01,-2.711367218213385777e-01,-2.278909240025274452e-01,-2.136954226284421277e-01,-3.151917009959584459e-01,-4.581599077801455366e-01,-6.380872505919815696e-01,-9.259194329870035212e-01,-9.358949448014193262e-01,-7.899509193595803946e-01,-3.943106425000025839e-01,-6.096254215512499908e-01,4.725142115881288130e-02,-3.110135010987833404e-01,3.958520747956235653e-01,3.566580044302140595e-01,-1.092981996061411359e-01,-1.548382152600513983e-01,3.794434680711415431e-01,-1.660409432470678626e-01,-2.102615985446696367e-01,-1.171447219751557689e-01,1.472170610671490708e-02,-2.029279778786048302e-02,1.869791755790269350e-01,7.082189946351445942e-01,4.840565979356266646e-01,2.234406055619325704e-01,-1.535781957694378475e-01,-2.220876097322420084e-01,-4.340123704578954800e-01,6.806614144184870707e-02,-4.022339491346988045e-03,-6.478778243836832429e-01,-1.137570106353405830e+00,-5.246589941438063454e-01,-4.216540237615281073e-01,-3.779092286605025275e-01,-1.541271577737806098e-01,-7.122818123696528225e-01,-3.593683867513399188e-01,-2.311386844164985133e-01,-4.999620493924146758e-01,3.501683940502617332e-01,-8.373164156807520742e-02,1.572956212464909909e-01,2.688432379091954330e-02,5.516751448176875072e-02,-5.852795440723246312e-02,4.259534514610952560e-01,5.708428227188197535e-02,-2.091563296466505129e-01,3.375360922024203125e-01,7.129107929531186549e-01,2.914649052167997412e-01,-2.377150324064180031e-01,-4.349925251252496072e-01,-7.260223941985799456e-01,3.703572316952695453e-02,-3.395129634534900798e-01,-1.034884022726583197e-01,3.014850311648035412e-03,4.388834555299609558e-03,-5.546764466977675001e-01,-6.498448541358005093e-01,-7.856347913793602089e-01,-4.070399808683438647e-01,-6.230083331906679511e-01,-1.048231602459653716e-01,3.358238877675147616e-01,-2.651085282214746958e-02,-4.266144240024393741e-01,1.271073210748775717e-01,4.522969915239100636e-01,-2.448624872362336891e-01,-5.309129161732517588e-01,9.773585969397174944e-02,-1.261544990734930760e-01,-1.355398713460805316e-01,3.948743236934391249e-02,1.056872259254768853e-01,4.161925663240942930e-01,4.795124862587222814e-01,2.447261843987754565e-02,1.758540215946426954e-01,-3.631983015594941744e-01,-1.556535311016800371e-02,-4.839785688392443941e-01,-5.713343120714843293e-01,-4.851090238625013207e-01,-9.232047362787964007e-01,-5.766475137076038093e-01,-3.301242414476160403e-01,-5.811531663669381453e-01,-5.199909832899828332e-01,1.032039764819146638e-01,-1.908338422019069738e-02,1.672832575088828433e-01,2.686028859869176166e-01,-2.603046974678692727e-01,-4.246118843084942251e-01,9.199283968881601103e-02,-3.577704320679708228e-01,3.870085603000228969e-01,2.936763421800498985e-01,5.149560118305818168e-01,3.440029898825246457e-01,-4.703518771407265153e-01,-6.375744124544212577e-01,1.059131208101906640e-01,-2.282928054867881806e-01,-6.091867571812138449e-01,4.608670969742668239e-02,-4.807085864168846312e-01,-1.490509233427498581e-01,-4.499816173749879300e-02,-7.384331213198217503e-01,1.055258799323499919e-01,-5.718545063336046841e-01,-2.946203201655659965e-01,-7.698244565131914796e-02,1.094357415707427478e-01,2.191868948854016619e-01,3.832645115498433119e-01,-3.947003694784418371e-01,9.677998308487288648e-02,3.587820464367189599e-01,-3.218434340629216517e-01,4.293364332966393415e-01,-9.418407617844389013e-02,-2.432070974071078306e-01,-4.238255337620682739e-01,-9.000785453401485489e-03,1.012240667251955439e-01,-3.225352497822509545e-01,1.387175008016274802e-01,-1.342803685800195990e-01,-2.112221716132426097e-01,-3.702918062655754516e-01,-1.240212399358710804e-01,-2.527811408562152806e-01,-5.111239913131738755e-01,-5.561259616665084060e-01,-1.848202040745526020e-01,3.129249347730156394e-01,-5.688596478341971692e-03,-5.177611246635140108e-02,1.688417293415853948e-01,-7.207830367840064589e-01,1.262667457306199809e-02,2.513835382895425116e-02,-4.567067301414221014e-01,-2.663234482065433562e-01,-2.272625080872917730e-02,1.588416679816949673e-01,-1.731272291192956503e-01,-2.566211578060256793e-01,3.687753229004285260e-01,4.533255395525361275e-01,-4.053076148292876886e-05,-3.055528336143035206e-01,-4.002157337336612053e-01,-5.532890726417474259e-01,-4.836637173259070166e-01,-3.980360816243710409e-01,2.416913525234205828e-01,2.485690452837665404e-02,-2.200837991253284387e-01,-2.710668691790943385e-01,-9.960352926260608586e-02,-2.871922076035177684e-01,1.342130462263566304e-01,4.964854040935133273e-01,-5.807625046531930679e-02,3.209965849119502668e-01,6.064728192463861300e-02,1.267018870339287409e-02,-2.594855712840643536e-01,1.796607927271051952e-01,1.517864139318684802e-01,-3.853947680220646266e-01,4.239666780624317677e-01,-3.364775477698692119e-01,-2.290858613351554884e-01,-4.688888595678884497e-01,-2.093412802042079190e-01,8.269793080613631331e-02,4.254545746461165234e-01,-3.936881471086762785e-01,-3.968247676537819957e-01,3.641744945871726036e-01,3.061135860805213604e-01,-1.273802733553112410e-01,-3.344839358191153966e-01,1.103261968189715170e-01,-1.111540108527921955e-01,3.847167892713799775e-01,1.006117394570847645e-01,-2.425728665221713043e-01,3.990713031525958132e-01,-3.606873432483412301e-02,3.415293541580849412e-01,-2.438198920928857372e-01,3.387470310056432399e-01,3.313249947001452589e-01,-2.049363033156945124e-01,8.683452556600106120e-02,-1.821609675043805998e-01,4.033773118810369263e-01,-4.614025954844754307e-01,4.306364671420669921e-01,-4.371121412492324221e-01
